tree
version=v4
num_class=1
num_tree_per_iteration=1
label_index=0
max_feature_idx=13
objective=binary sigmoid:1
feature_names=Column_0 Column_1 Column_2 Column_3 Column_4 Column_5 Column_6 Column_7 Column_8 Column_9 Column_10 Column_11 Column_12 Column_13
monotone_constraints=1 1 1 1 -1 1 1 1 -1 1 1 1 1 1
feature_infos=[8.6258363738144978e-05:6.421747668139421] [0.00033955862664118757:8.3175241137115563] [0:10] [0.00029117383077661264:33.395768025026022] [-0.97092665588188376:-0.00013604870543657127] [6.5982862807575894e-09:0.23338689449445496] [5.7748761725045707e-05:12.783406971035836] [4.6823927026701939e-05:16.732731958762884] [0:1] [-0.0054614152631578946:0.0021037430952380956] [0.013214937199028914:10799.469293677907] [0:0.42857142857142855] [-0.97372972314716666:0.99502207777121665] [-2.894969103179061:2.918160098871629]
tree_sizes=968 984 986 987 998 990 998 986 985 1000 993 996 995 996 1003 990 999 992 996 995 993

Tree=0
num_leaves=8
num_cat=0
split_feature=0 0 0 13 10 12 13
split_gain=1340.76 247.313 186.304 143.34 93.9374 63.7742 48.6622
threshold=0.10580114597475453 0.077982375063146689 0.16695128682320831 0.067569695592611639 0.6443787647064505 -0.21369711022749896 0.28206829777581027
decision_type=2 2 2 2 2 2 2
left_child=1 3 -2 5 6 -1 -3
right_child=2 4 -4 -5 -6 -7 -8
leaf_value=-1.8391186491675444 -1.7256666923615405 -1.773820245755696 -1.6848625961674513 -1.7749364741075098 -1.7442208337670861 -1.7999541935097267 -1.757412612909641
leaf_weight=47.904327601194382 292.44846785068512 133.20516455173492 153.5994416475296 239.40889751911163 128.68212902545929 170.97599956393242 59.769166260957718
leaf_count=353 1224 773 467 1333 575 1072 278
internal_value=-1.7531 -1.77683 -1.71162 -1.79098 -1.75666 -1.80853 -1.7706
internal_weight=1225.99 779.946 446.048 458.289 321.656 218.88 192.974
internal_count=6075 4384 1691 2758 1626 1425 1051
is_linear=0
shrinkage=1


Tree=1
num_leaves=8
num_cat=0
split_feature=5 9 0 13 10 6 3
split_gain=1113.55 216.497 190.581 129.824 105.391 73.6684 58.9435
threshold=0.0026565018603348371 5.0341547619047634e-05 0.062754966000835063 0.40109421684451757 0.38200656284170004 0.1349140852813808 0.51260445157011236
decision_type=2 2 2 2 2 2 2
left_child=2 6 3 -1 -4 -3 -2
right_child=1 5 4 -5 -6 -7 -8
leaf_value=0.022381940504073897 0.088465682572689081 0.11669194761675616 0.057150173717205287 0.054601006429623032 0.084784551448350426 0.14700477577443027 0.11669194761675616
leaf_weight=175.23192794620991 196.14471473544836 89.408988907933235 257.05137250572443 82.052184849977493 240.34064374119043 172.54115973412991 96.994861707091331
leaf_count=1154 858 328 1414 412 1113 443 331
internal_value=0.083384 0.115638 0.0596604 0.0386989 0.0705032 0.135457 0.0979268
internal_weight=1309.77 555.09 754.676 257.284 497.392 261.95 293.14
internal_count=6053 1960 4093 1566 2527 771 1189
is_linear=0
shrinkage=0.03


Tree=2
num_leaves=8
num_cat=0
split_feature=5 0 10 8 13 8 3
split_gain=952.348 239.695 138.865 83.3593 69.5724 75.1536 54.3007
threshold=0.0018809357010668225 0.13619438541408377 0.5118395174044662 1.0000000180025095e-35 -0.015107447319716047 0.60707615687902072 0.34737158919111372
decision_type=2 2 2 2 2 2 2
left_child=2 3 4 -2 5 -1 -5
right_child=1 -3 -4 6 -6 -7 -8
leaf_value=0.040648528842647892 0.10314372784729595 0.11998066128115953 0.070540737871908135 0.075460078422531149 0.052808529091959412 0.0020699666107295194 0.091018204325419391
leaf_weight=142.27633854746819 112.2426979392767 322.957718282938 212.90760447084904 196.1869725137949 215.13560564815998 66.154407441616058 154.53975613415241
leaf_count=827 367 857 1004 903 1145 457 573
internal_value=0.0780537 0.100144 0.0507759 0.0863068 0.040841 0.0284885 0.0788927
internal_weight=1422.4 785.927 636.474 462.969 423.566 208.431 350.727
internal_count=6133 2700 3433 1843 2429 1284 1476
is_linear=0
shrinkage=0.03


Tree=3
num_leaves=8
num_cat=0
split_feature=0 9 0 9 13 1 10
split_gain=898.39 211.657 125.389 95.7631 89.7863 50.0271 44.6682
threshold=0.11152589659109659 0.00010004976190476193 0.078973330132502753 5.0341547619047634e-05 -0.11306601581876223 0.58291041556839407 0.2432078098180793
decision_type=2 2 2 2 2 2 2
left_child=1 2 4 5 -1 -2 -6
right_child=3 -3 -4 -5 6 -7 -8
leaf_value=0.020718148108080058 0.078400029678019789 0.076810902356196462 0.061025021969794715 0.11311070912900509 0.033975485309852713 0.1005602747424585 0.049370807258662552
leaf_weight=179.29049870371819 176.5907429009676 84.214615985751152 355.56696978211403 283.07846051454544 140.29380901902914 88.117860212922096 179.96532639861107
leaf_count=1117 637 266 1582 663 798 222 855
internal_value=0.0704471 0.0526407 0.0474085 0.100981 0.0377166 0.0880098 0.0472328
internal_weight=1487.12 939.331 855.117 547.787 499.55 264.709 320.259
internal_count=6140 4618 4352 1522 2770 859 1653
is_linear=0
shrinkage=0.03


Tree=4
num_leaves=8
num_cat=0
split_feature=5 9 9 0 12 0 9
split_gain=537.905 109.289 97.4219 93.4829 56.9961 46.9469 32.8767
threshold=0.0028841601022423263 9.8911428571428578e-05 5.0341547619047634e-05 0.062754966000835063 0.43526920340375358 0.17564282658290034 3.9342142857142867e-05
decision_type=2 2 2 2 2 2 2
left_child=1 3 5 4 -1 -2 -5
right_child=2 -3 -4 6 -6 -7 -8
leaf_value=0.020408425282777486 0.068707931249653006 0.068707931249653006 0.098357747756625494 0.046057994176873458 0.043441825646737701 0.086700620968333281 0.057897615176027858
leaf_weight=155.81675574183464 241.01929111778736 73.372437700629234 320.59161339700222 267.57170377671719 118.66506770253181 83.646765395998955 290.96984618902206
leaf_count=936 879 241 753 1282 599 201 1257
internal_value=0.0656922 0.0507888 0.086627 0.0470873 0.0327512 0.0750435 0.0541324
internal_weight=1551.65 906.396 645.258 833.023 274.482 324.666 558.542
internal_count=6148 4315 1833 4074 1535 1080 2539
is_linear=0
shrinkage=0.03


Tree=5
num_leaves=8
num_cat=0
split_feature=5 7 10 8 3 13 10
split_gain=553.129 78.8887 70.3906 63.6601 74.5564 55.5112 45.91
threshold=0.0028493790243935674 0.025245900283561964 0.50561390348933655 1.0000000180025095e-35 0.34737158919111372 0.2509044861079095 0.086999155362154912
decision_type=2 2 2 2 2 2 2
left_child=1 -1 5 -2 -5 6 -3
right_child=3 2 -4 4 -6 -7 -8
leaf_value=-0.035663771177094655 0.096612095435039111 0.0076471728219670108 0.056897929531494938 0.062823055785459228 0.082654601282052029 0.048174377115740734 0.036912758963112496
leaf_weight=10.798081763088701 170.1325478553772 56.744637884199619 330.5529967546463 135.03290095925331 378.2984676361084 183.13315045833588 322.00782971829176
leaf_count=81 364 350 1373 497 976 813 1641
internal_value=0.0603458 0.0449379 0.0459131 0.0807082 0.0754373 0.0394508 0.0325282
internal_weight=1586.7 903.237 892.439 683.464 513.331 561.886 378.752
internal_count=6095 4258 4177 1837 1473 2804 1991
is_linear=0
shrinkage=0.03


Tree=6
num_leaves=8
num_cat=0
split_feature=5 9 1 9 12 0 9
split_gain=425.191 118.552 81.2414 80.3236 73.9962 36.3697 34.9188
threshold=0.0018546771596730887 0.00010004976190476193 0.58291041556839407 9.8911428571428578e-05 -0.19586569167493739 0.065396331287286516 4.7874541666666682e-05
decision_type=2 2 2 2 2 2 2
left_child=3 2 6 4 -1 -6 -2
right_child=1 -3 -4 -5 5 -7 -8
leaf_value=0.011931646341991212 0.053942573501403343 0.086812852341269231 0.074808991061431268 0.053942573501403343 0.031343503240283288 0.044380787087202889 0.065851466099221725
leaf_weight=106.54500321298838 300.25015641748905 254.58362343907356 146.02813352644444 50.565479248762131 278.24765233695507 273.11265882849693 232.15286992490292
leaf_count=617 1130 534 319 156 1453 1186 711
internal_value=0.056051 0.0693559 0.0628051 0.0385292 0.034819 0.0392418 0.0568939
internal_weight=1641.49 933.015 678.431 708.471 657.905 551.36 532.403
internal_count=6106 2694 2160 3412 3256 2639 1841
is_linear=0
shrinkage=0.03


Tree=7
num_leaves=8
num_cat=0
split_feature=0 9 13 1 12 0 8
split_gain=370.629 163.465 73.1453 65.9484 49.1002 42.9209 42.0725
threshold=0.077982375063146689 5.0001904761904778e-05 0.20520466751527386 0.58291041556839407 -0.19586569167493739 0.064751203051395187 0.14545988833382312
decision_type=2 2 2 2 2 2 2
left_child=2 3 4 -2 5 -1 -3
right_child=1 6 -4 -5 -6 -7 -8
leaf_value=-0.028404688885782396 0.049662111533534559 0.083332339159716218 0.04686293765820599 0.0659604481366622 0.031084804450427592 0.016148658490459839 0.0659604481366622
leaf_weight=26.360449865460396 543.79600369930267 339.69973406195641 255.88123424351215 118.4322734773159 256.03065180778503 35.035512492060661 162.11714354157448
leaf_count=194 1982 708 1089 262 1303 193 427
internal_value=0.0546721 0.0643963 0.0349279 0.05461 0.025307 0.00121251 0.0773109
internal_weight=1737.35 1164.05 573.308 662.228 317.427 61.396 501.817
internal_count=6158 3379 2779 2244 1690 387 1135
is_linear=0
shrinkage=0.03


Tree=8
num_leaves=8
num_cat=0
split_feature=0 9 7 9 10 8 0
split_gain=412.1 94.1019 52.0878 48.8092 41.8243 42.4439 38.1697
threshold=0.11094793643041838 0.00010004976190476193 0.025245900283561964 5.6295595238095259e-05 0.50561390348933655 0.9001867607387426 0.17564282658290034
decision_type=2 2 2 2 2 2 2
left_child=1 2 -1 6 5 -4 -2
right_child=3 -3 4 -5 -6 -7 -8
leaf_value=-0.035765735264849517 0.05361884183026993 0.05361884183026993 0.033532926218259915 0.076424378787131625 0.043733554705944019 0.00470951291417153 0.068354202618376367
leaf_weight=9.1585362032055837 221.64589990675449 102.5333504229784 543.40667178481817 344.27362565696239 390.68776905536652 50.229978904128075 108.85567812621593
leaf_count=68 674 279 2508 631 1505 277 212
internal_value=0.0500744 0.0387188 0.0354482 0.0685189 0.0361108 0.0310941 0.060284
internal_weight=1770.79 1096.02 993.483 674.775 984.324 593.637 330.502
internal_count=6154 4637 4358 1517 4290 2785 886
is_linear=0
shrinkage=0.03


Tree=9
num_leaves=8
num_cat=0
split_feature=0 13 9 5 9 12 8
split_gain=330.175 90.7305 85.3258 46.7236 52.0166 44.7043 38.5043
threshold=0.099658279564859939 0.067569695592611639 5.0341547619047634e-05 0.0018809357010668225 -8.8636785714285704e-05 -0.19586569167493739 0.19132225102943423
decision_type=2 2 2 2 2 2 2
left_child=1 3 -2 4 -1 6 -6
right_child=2 -3 -4 -5 5 -7 -8
leaf_value=-0.03677683582126693 0.052538932872037467 0.045051210355521676 0.07170692907126279 0.035841318190113693 0.016210890939355158 0.028352769642235185 -0.0068232248258512703
leaf_weight=13.557299152016638 415.39353670179844 514.73907470703125 420.68407082557678 93.626311048865318 31.501365803182125 260.66070303320885 52.674704350531101
leaf_count=91 1193 1957 780 322 148 1238 339
internal_value=0.0483781 0.0364388 0.0621836 0.0266314 0.0208642 0.0231304 0.00406901
internal_weight=1802.84 966.759 836.078 452.02 358.394 344.837 84.1761
internal_count=6068 4095 1973 2138 1816 1725 487
is_linear=0
shrinkage=0.03


Tree=10
num_leaves=8
num_cat=0
split_feature=0 6 8 12 10 0 13
split_gain=276.696 88.9663 66.1131 42.7929 32.878 29.8132 29.725
threshold=0.077982375063146689 0.12732027213551397 0.023532668881506093 -0.45299700659291425 0.088966567786065862 0.22408008655398992 -0.11306601581876223
decision_type=2 2 2 2 2 2 2
left_child=3 2 -2 -1 -5 -3 -6
right_child=1 5 -4 4 6 -7 -8
leaf_value=-0.0032644499335410088 0.055178559012108608 0.059109574451966192 0.041475518675920968 0.013915780942825124 0.023973168547180807 0.075652576405205271 0.039085744009557263
leaf_weight=34.577973462641239 191.38334009051323 385.76199635863304 536.92464712262154 82.771037541329861 157.85278279334307 131.45431835949421 335.74206319451332
leaf_count=214 471 837 1817 435 788 195 1346
internal_value=0.0456882 0.0537997 0.047043 0.0291513 0.031096 0.0633141 0.0340306
internal_weight=1856.47 1245.52 728.308 610.944 576.366 517.216 493.595
internal_count=6103 3320 2288 2783 2569 1032 2134
is_linear=0
shrinkage=0.03


Tree=11
num_leaves=8
num_cat=0
split_feature=0 13 0 12 0 9 7
split_gain=291.832 102.572 53.0272 60.8261 35.4126 30.3993 30.2994
threshold=0.11258423972345231 0.067569695592611639 0.063828970114955474 -0.19586569167493739 0.17564282658290034 6.6417857142857177e-05 0.058681742194460311
decision_type=2 2 2 2 2 2 2
left_child=1 2 3 -1 5 -2 -3
right_child=4 6 -4 -5 -6 -7 -8
leaf_value=-0.035593496324442531 0.046688804457295507 0.033697264342705195 0.030709494190321918 0.017767767653484097 0.067356409214422874 0.060506408850284278 0.046640856708340638
leaf_weight=22.714843429625034 253.41852110624313 186.48070243000984 384.56622114777565 125.15894232690334 270.39712220430374 203.05270680785179 470.49168980121613
leaf_count=172 678 767 1546 643 427 360 1509
internal_value=0.0437768 0.0346248 0.0248387 0.00957096 0.0587528 0.0536564 0.0425558
internal_weight=1916.28 1189.41 532.44 147.874 726.868 456.471 656.972
internal_count=6102 4637 2361 815 1465 1038 2276
is_linear=0
shrinkage=0.03


Tree=12
num_leaves=8
num_cat=0
split_feature=0 9 10 0 12 0 9
split_gain=257.265 62.9567 52.0069 39.7686 27.8724 25.4164 33.4212
threshold=0.11258423972345231 0.00010004976190476193 0.081361205056230526 0.077678808196912544 0.14749072342903885 0.17564282658290034 2.558261904761905e-05
decision_type=2 2 2 2 2 2 2
left_child=1 2 -1 4 -4 6 -2
right_child=5 -3 3 -5 -6 -7 -8
leaf_value=0.0071218342368848169 0.043539718312187989 0.043539718312187989 0.019311745418652975 0.036569266693024231 0.030652106192549083 0.06257247105821763 0.055840972758036463
leaf_weight=85.415198184549809 104.58292452991009 112.25874927639961 161.16691026836634 488.88078719377518 358.90430720150471 251.81747613847256 355.26218895614147
leaf_count=443 315 276 815 1634 1475 397 716
internal_value=0.0406056 0.0321683 0.0295988 0.0315017 0.025677 0.0549111 0.0507157
internal_weight=1918.29 1206.63 1094.37 1008.95 520.071 711.663 459.845
internal_count=6071 4643 4367 3924 2290 1428 1031
is_linear=0
shrinkage=0.03


Tree=13
num_leaves=8
num_cat=0
split_feature=0 10 12 10 9 9 0
split_gain=219.908 72.1559 61.8183 27.635 24.3152 21.4289 20.5278
threshold=0.11258423972345231 0.49878114521130695 -0.45299700659291425 0.081361205056230526 5.0341547619047634e-05 4.9849642857142874e-05 0.16992805264487174
decision_type=2 2 2 2 2 2 2
left_child=1 2 -1 -4 6 -3 -2
right_child=4 5 3 -5 -6 -7 -8
leaf_value=-0.0040615884696109644 0.041218259855011631 0.0331515901213583 0.011609651345008236 0.029724890757167235 0.056751297971175993 0.041218259855011631 0.051259366036962815
leaf_weight=62.127701617777348 216.95840829610825 332.40326485037804 85.432897366583347 555.29239076375961 387.11298814415932 203.25988091528416 124.36276914179325
leaf_count=337 584 1181 426 2191 634 554 220
internal_value=0.0385248 0.0308319 0.0245104 0.0272809 0.0516046 0.0391265 0.0457674
internal_weight=1966.95 1238.52 702.853 640.725 728.434 535.663 341.321
internal_count=6127 4689 2954 2617 1438 1735 804
is_linear=0
shrinkage=0.03


Tree=14
num_leaves=8
num_cat=0
split_feature=9 0 13 4 5 7 9
split_gain=199.984 130.302 57.9194 49.8179 21.9158 21.6426 13.1698
threshold=0.00010004976190476193 0.11258423972345231 -0.11306601581876223 -0.058482724808098803 0.0021211289964688704 0.064990817311618779 -8.8636785714285704e-05
decision_type=2 2 2 2 2 2 2
left_child=1 2 3 4 6 -4 -1
right_child=-2 -3 5 -5 -6 -7 -8
leaf_value=-0.0015692769739337619 0.055830186416035432 0.043646751420087809 0.024840714442097959 -0.022795866538978759 0.023975234393110272 0.034763568081773132 0.016054673604707644
leaf_weight=12.190092906355856 373.49179099500179 480.94727809727192 299.01852735131979 26.594669505953789 84.987440928816795 417.39464999735355 288.12198501825333
leaf_count=72 668 1058 1211 164 264 1366 1336
internal_value=0.0360533 0.0314633 0.0258804 0.0169162 0.0196573 0.0310342 0.0145095
internal_weight=1982.75 1609.25 1128.31 411.894 385.3 716.413 300.312
internal_count=6139 5471 4413 1836 1672 2577 1408
is_linear=0
shrinkage=0.03


Tree=15
num_leaves=8
num_cat=0
split_feature=0 8 13 0 12 10 7
split_gain=177.428 68.876 60.5395 63.0083 48.5485 33.2309 22.8666
threshold=0.11870162346482792 1.0000000180025095e-35 0.13390371978488316 0.064099931178012257 -0.076691339487106311 0.14050708551017174 0.11120651676084807
decision_type=2 2 2 2 2 2 2
left_child=1 -1 3 4 -3 -5 -2
right_child=6 2 -4 5 -6 -7 -8
leaf_value=0.038373567082909767 0.038373567082909767 -0.03024440215462779 0.031989905892447913 0.013694346819436945 0.01092147944011684 0.025212953511956421 0.050552465902926565
leaf_weight=247.12114941328764 133.6815278083086 32.462653771042824 577.4065215587616 68.078885093331337 125.31800073385239 319.86700235307217 540.27317070960999
leaf_count=707 312 229 1913 324 617 1126 937
internal_value=0.0351716 0.0289731 0.0256062 0.018436 0.00245179 0.0249369 0.047774
internal_weight=2044.21 1370.25 1123.13 545.727 157.781 387.946 673.955
internal_count=6165 4916 4209 2296 846 1450 1249
is_linear=0
shrinkage=0.03


Tree=16
num_leaves=8
num_cat=0
split_feature=5 12 1 9 10 10 9
split_gain=220.838 83.5091 49.0987 43.9983 42.5443 23.7308 21.708
threshold=0.001918371811918611 -0.45299700659291425 0.58291041556839407 5.8244523809523832e-05 0.088966567786065862 0.45767380043060479 -8.8636785714285704e-05
decision_type=2 2 2 2 2 2 2
left_child=1 5 3 -2 -3 -1 -6
right_child=2 4 -4 -5 6 -7 -8
leaf_value=-0.02389561773023911 0.034082142840635633 0.0077414437267854033 0.053212608646215083 0.046304924321627319 0.018005076532110233 0.0071186618909694199 0.029824368604477944
leaf_weight=43.113054148852825 551.49826766550541 103.9070903211832 312.08482600748539 345.33505767583847 38.253628671169281 15.180356703698633 686.01280946284533
leaf_count=270 1526 506 482 629 173 63 2522
internal_value=0.0346238 0.0232503 0.0429637 0.0393972 0.0256932 -0.0114559 0.0282687
internal_weight=2095.39 886.467 1208.92 896.833 828.174 58.2934 724.266
internal_count=6171 3534 2637 2155 3201 333 2695
is_linear=0
shrinkage=0.03


Tree=17
num_leaves=8
num_cat=0
split_feature=6 8 7 10 9 13 10
split_gain=189.055 68.3248 36.419 19.2736 18.2824 20.3024 24.4119
threshold=0.11609312910955041 0.024243314722303854 0.025245900283561964 0.35747887007904044 -0.00060512795454545441 0.43760137605235588 0.44314185311478038
decision_type=2 2 2 2 2 2 2
left_child=1 -1 -3 -2 -4 6 -6
right_child=3 2 4 -5 5 -7 -8
leaf_value=0.035479535930684987 0.035479535930684987 -0.036651828876628968 -0.0068988970781569958 0.047085863474505781 0.015548957439875537 0.028902499698243597 0.024596429988983301
leaf_weight=297.37418450415134 119.54173716902733 9.3395606353878957 9.526740834116934 616.97839872539043 424.74218323081732 342.39708523452282 265.43000564724207
leaf_count=838 275 64 45 1076 1818 1083 890
internal_value=0.032705 0.0260301 0.0223255 0.0449289 0.022854 0.0232564 0.0202904
internal_weight=2085.33 1348.81 1051.44 736.52 1042.1 1032.57 690.172
internal_count=6089 4738 3900 1351 3836 3791 2708
is_linear=0
shrinkage=0.03


Tree=18
num_leaves=8
num_cat=0
split_feature=0 8 13 0 10 9 0
split_gain=165.175 61.2713 49.1481 46.1818 31.2693 18.5526 14.0598
threshold=0.077982375063146689 0.016530054644808747 -0.11306601581876223 0.17564282658290034 0.088966567786065862 6.6417857142857177e-05 0.028834718230936845
decision_type=2 2 2 2 2 2 2
left_child=2 -2 6 5 -4 -3 -1
right_child=1 3 4 -5 -6 -7 -8
leaf_value=-0.035860260667241912 0.048377054275871717 0.029545175855978097 0.017804907683990651 0.041519114031292444 0.029545175855978097 0.036313994613924254 0.010525502633862115
leaf_weight=6.0399349331855765 405.00168186426163 645.96978189051151 56.289398774504662 217.10073727369308 403.05748199671507 198.05808794498444 223.5056037157774
leaf_count=45 743 1890 274 317 1381 405 1077
internal_value=0.0327568 0.03845 0.0206403 0.0346612 0.0263048 0.0311089 0.00930497
internal_weight=2155.02 1466.13 688.892 1061.13 459.347 844.028 229.546
internal_count=6132 3355 2777 2612 1655 2295 1122
is_linear=0
shrinkage=0.03


Tree=19
num_leaves=8
num_cat=0
split_feature=5 12 8 9 0 5 10
split_gain=132.982 49.8918 43.7922 38.8796 31.7102 28.8656 26.1663
threshold=0.0024397131702632545 -0.2389237392819113 0.19132225102943423 8.738071428571431e-05 0.17277613231208638 0.0016639110254432425 0.081361205056230526
decision_type=2 2 2 2 2 2 2
left_child=1 2 -1 4 -2 -4 -3
right_child=3 6 5 -5 -6 -7 -8
leaf_value=0.015551907930010909 0.02975905139032366 0.015551907930010909 -0.021732078998957981 0.045140864797841698 0.03908598728914621 0.0037148299623172478 0.026626961794238516
leaf_weight=56.969557344913483 510.6787683814764 84.059036985039711 60.36537117511034 365.59798687696457 176.29915733635426 33.201448827981949 853.55178771913052
leaf_count=204 1307 396 365 562 273 122 2913
internal_value=0.0296348 0.0222808 0.00624902 0.0372373 0.0330311 -0.00812225 0.0248548
internal_weight=2140.72 1088.15 150.536 1052.58 686.978 93.5668 937.611
internal_count=6142 4000 691 2142 1580 487 3309
is_linear=0
shrinkage=0.03


Tree=20
num_leaves=8
num_cat=0
split_feature=5 13 9 8 7 3 9
split_gain=135.006 57.5494 57.13 42.2375 25.4628 22.8873 19.8881
threshold=0.0018809357010668225 0.067569695592611639 4.800476190476192e-05 0.38013890444718273 0.15569734807350713 0.48810368130560094 7.2998809523809536e-06
decision_type=2 2 2 2 2 2 2
left_child=1 3 5 -1 -4 -2 -5
right_child=2 -3 4 6 -6 -7 -8
leaf_value=0.020387156446676637 0.027983425756235573 0.027938118924361391 0.036648925680770064 -0.013177977765280699 0.048067385188972953 0.034369583358223571 0.0082261064601195887
leaf_weight=249.61768580973148 332.48039431869984 456.11381797492504 488.69265329837799 52.850686974823475 274.48962131142616 181.48140223324299 149.83693730086088
leaf_count=964 975 1499 1018 284 368 338 686
internal_value=0.0292596 0.0204188 0.035548 0.0128362 0.0407557 0.0279834 0.002645
internal_weight=2185.56 908.419 1277.14 452.305 763.182 513.962 202.688
internal_count=6132 3433 2699 1934 1386 1313 970
is_linear=0
shrinkage=0.03


end of trees

feature_importances:
Column_0=32
Column_9=28
Column_10=18
Column_13=15
Column_8=12
Column_12=12
Column_5=11
Column_7=7
Column_1=4
Column_3=4
Column_6=3
Column_4=1

parameters:
[boosting: gbdt]
[objective: binary]
[metric: average_precision]
[tree_learner: serial]
[device_type: cpu]
[data_sample_strategy: bagging]
[data: ]
[valid: ]
[num_iterations: 300]
[learning_rate: 0.03]
[num_leaves: 8]
[num_threads: 0]
[seed: 42]
[deterministic: 0]
[force_col_wise: 0]
[force_row_wise: 0]
[histogram_pool_size: -1]
[max_depth: -1]
[min_data_in_leaf: 30]
[min_sum_hessian_in_leaf: 0.001]
[bagging_fraction: 0.8]
[pos_bagging_fraction: 1]
[neg_bagging_fraction: 1]
[bagging_freq: 1]
[bagging_seed: 400]
[bagging_by_query: 0]
[feature_fraction: 0.8]
[feature_fraction_bynode: 1]
[feature_fraction_seed: 30056]
[extra_trees: 0]
[extra_seed: 12879]
[early_stopping_round: 0]
[early_stopping_min_delta: 0]
[first_metric_only: 0]
[max_delta_step: 0]
[lambda_l1: 0]
[lambda_l2: 0]
[linear_lambda: 0]
[min_gain_to_split: 0]
[drop_rate: 0.1]
[max_drop: 50]
[skip_drop: 0.5]
[xgboost_dart_mode: 0]
[uniform_drop: 0]
[drop_seed: 17869]
[top_rate: 0.2]
[other_rate: 0.1]
[min_data_per_group: 100]
[max_cat_threshold: 32]
[cat_l2: 10]
[cat_smooth: 10]
[max_cat_to_onehot: 4]
[top_k: 20]
[monotone_constraints: 1,1,1,1,-1,1,1,1,-1,1,1,1,1,1]
[monotone_constraints_method: basic]
[monotone_penalty: 0]
[feature_contri: ]
[forcedsplits_filename: ]
[refit_decay_rate: 0.9]
[cegb_tradeoff: 1]
[cegb_penalty_split: 0]
[cegb_penalty_feature_lazy: ]
[cegb_penalty_feature_coupled: ]
[path_smooth: 0]
[interaction_constraints: ]
[verbosity: -1]
[saved_feature_importance_type: 0]
[use_quantized_grad: 0]
[num_grad_quant_bins: 4]
[quant_train_renew_leaf: 0]
[stochastic_rounding: 1]
[linear_tree: 0]
[max_bin: 255]
[max_bin_by_feature: ]
[min_data_in_bin: 3]
[bin_construct_sample_cnt: 200000]
[data_random_seed: 175]
[is_enable_sparse: 1]
[enable_bundle: 1]
[use_missing: 1]
[zero_as_missing: 0]
[feature_pre_filter: 1]
[pre_partition: 0]
[two_round: 0]
[header: 0]
[label_column: ]
[weight_column: ]
[group_column: ]
[ignore_column: ]
[categorical_feature: ]
[forcedbins_filename: ]
[precise_float_parser: 0]
[parser_config_file: ]
[objective_seed: 16083]
[num_class: 1]
[is_unbalance: 0]
[scale_pos_weight: 6.32153]
[sigmoid: 1]
[boost_from_average: 1]
[reg_sqrt: 0]
[alpha: 0.9]
[fair_c: 1]
[poisson_max_delta_step: 0.7]
[tweedie_variance_power: 1.5]
[lambdarank_truncation_level: 30]
[lambdarank_norm: 1]
[label_gain: ]
[lambdarank_position_bias_regularization: 0]
[eval_at: ]
[multi_error_top_k: 1]
[auc_mu_weights: ]
[num_machines: 1]
[local_listen_port: 12400]
[time_out: 120]
[machine_list_filename: ]
[machines: ]
[gpu_platform_id: -1]
[gpu_device_id: -1]
[gpu_use_dp: 0]
[num_gpu: 1]

end of parameters

pandas_categorical:null
